the 0.021298 0.29625 -0.048215 -0.01209 -0.13347 -0.13515 -0.031925 0.013501 0.067506 -0.0038566
</s> 0.12894 0.32813 0.0090308 0.085797 0.20059 -0.24033 0.067653 -0.023488 0.23853 0.12054
of 0.085701 0.29082 0.078171 -0.12141 -0.098635 -0.0075899 0.097821 -0.042526 0.29093 0.16945
and 0.088297 0.24111 0.15043 -0.072542 0.11563 -0.065447 -0.11242 0.10489 0.21993 -0.0109
to 0.039242 0.25436 0.14504 -0.053838 0.081405 -0.016032 -0.19443 -0.023043 0.26048 -0.0478
in 0.080287 0.26763 0.11123 0.055676 0.10559 0.086839 -0.10704 0.080185 0.15252 0.048781
a -0.10661 0.29065 -0.088934 0.094653 0.072178 -0.024138 -0.083166 0.043382 0.10972 -0.11285
for 0.0042658 0.35807 0.0562 -0.018295 0.14329 -0.031074 -0.1096 0.030918 0.12892 -0.021434
1 0.20422 0.33806 0.031392 0.2711 0.17291 -0.10013 -0.00067897 0.18006 0.19385 0.20648
or 0.14871 0.35254 -0.032413 0.17406 0.30652 -0.0047804 -0.023718 -0.16571 0.16295 0.068826
0 0.15614 -0.09581 0.1215 0.058077 -0.15019 -0.15659 0.05068 0.30523 -0.094917 0.057955
2 0.048703 0.3885 -0.012502 0.18914 0.14716 -0.14889 0.081091 0.14194 0.18719 0.27507
with 0.27391 0.18136 0.14152 0.07285 0.12735 0.25225 -0.22533 0.061876 0.41108 0.012469
is -0.1087 0.16573 0.11313 0.099122 0.22394 0.24564 0.040579 0.027162 0.092325 -0.18415
that -0.21205 0.37114 0.022826 -0.088136 0.095262 -0.11291 -0.1288 0.060676 0.21208 0.031342
The -0.03538 0.429 -0.13827 -0.0032461 -0.030434 -0.094145 0.19613 -0.061877 0.27689 -0.13385
3 0.035982 0.32148 -0.014942 0.18961 0.11904 -0.089016 0.045283 0.14911 0.17985 0.20817
on -0.15716 0.51596 -0.024628 -0.27614 0.022781 0.091982 -0.17683 -0.0019835 0.065107 0.043464
be -0.16885 0.22702 0.031767 0.02605 0.24898 0.064654 -0.24283 0.12467 0.24748 0.04903
4 -0.050608 0.33532 -0.031561 0.17015 0.064342 -0.14349 0.056431 0.1688 0.22128 0.25409
by -0.086076 0.29422 0.11986 0.091076 0.17116 -0.091116 -0.056489 0.30918 0.2956 -0.033513
5 0.033858 0.36165 -0.025832 0.139 0.013644 -0.064666 -0.014465 0.14162 0.25335 0.21643
as 0.057683 0.19371 0.076432 0.078768 0.13921 -0.16483 -0.1139 0.091974 0.2711 -0.24064
are 0.053015 0.2527 -0.049023 0.029248 0.35221 0.19985 -0.043528 -0.0024389 0.25957 -0.30412
was -0.14734 0.11127 0.13375 0.23762 0.33023 0.097447 0.089618 0.39308 0.23396 0.037147
from 0.061984 0.3207 -0.18215 0.0080038 0.066103 -0.30702 -0.15556 0.30772 0.32966 0.21827
not 0.0098745 0.20138 0.10288 -0.0033231 0.13697 -0.17974 -0.066664 0.24085 0.54136 -0.053391
at 0.15158 0.30234 -0.0082555 0.10299 0.19865 -0.14022 -0.16317 -0.076467 0.42883 -0.0933
6 -0.019021 0.32592 0.069527 0.11497 0.11757 -0.090898 0.070946 0.21383 0.18469 0.16055
were 0.05299 0.13669 -0.012707 0.093227 0.47633 0.013821 0.046198 0.24073 0.38204 -0.0013014
this -0.13188 0.2467 -0.020264 0.13531 -0.14682 -0.069555 0.029567 0.080791 0.21592 0.11356
7 -0.092069 0.23566 -0.018681 0.18388 0.068683 -0.061484 0.12513 0.23508 0.1421 0.13684
an -0.26499 0.36955 0.087108 0.15395 -0.096806 -0.23137 -0.079281 -0.15683 0.42915 0.21381
A 0.022678 0.037342 -0.31633 0.23678 0.24792 0.03755 0.0035188 0.069248 0.3914 -0.22133
8 -0.087312 0.2479 0.048673 0.17835 0.12456 -0.10538 0.078999 0.29906 0.11667 0.18356
have 0.026863 0.21987 0.028332 0.13342 0.20781 0.1088 -0.21464 0.34349 0.31381 -0.12611
which -0.050157 0.46565 -0.029979 -0.16458 -0.04598 -0.1179 -0.10057 -0.10557 0.26532 0.12058
9 -0.079324 0.24139 0.15627 0.18714 0.076097 -0.10614 0.087544 0.26785 0.10104 0.16997
10 0.16271 0.29154 0.08561 0.060464 0.012297 -0.27033 -0.072678 0.31866 0.090465 0.069196
will -0.12307 0.50901 0.19124 -0.17762 0.12907 0.078401 -0.10011 0.1244 0.1248 -0.087381
– -0.069211 0.24225 0.1134 0.17458 0.045153 0.025251 -0.075664 0.18399 0.14658 0.16428
it -0.093786 0.44996 0.16531 -0.036384 0.032518 -0.11433 -0.068078 0.16819 0.19653 0.086207
their 0.23955 0.43119 -0.0010393 -0.044436 -0.03854 -0.2131 -0.188 0.17875 0.25707 0.095548
12 0.034133 0.25522 -0.026937 0.075352 0.18634 -0.11321 0.028068 0.37105 0.017319 -0.086116
• -0.05996 0.17809 -0.09566 0.064049 -0.11642 -0.055305 -0.22169 -0.033841 0.021742 -0.083414
more -0.12224 0.11404 0.18013 -0.10831 -0.022642 0.0014236 -0.10961 -0.02512 0.32657 -0.0085598
11 -0.0098958 0.2928 0.047658 0.25016 0.085255 -0.12885 0.021721 0.38048 -0.014905 0.050855
has 0.0088828 0.18499 0.11815 0.14597 0.13226 0.21617 0.018781 0.43134 0.22103 -0.2022
study 0.35147 0.27982 0.0042239 0.17029 0.16439 -0.050091 -0.027211 0.050188 -0.23337 0.14375
no -0.19907 0.26904 -0.082722 -0.02943 -0.026304 0.020018 -0.076785 0.36017 0.14989 0.071135
other -0.12542 0.50209 -0.16438 -0.020075 0.23022 0.072353 -0.039882 0.1197 0.19414 0.088453
n 0.1827 0.11353 -0.037483 -0.17706 0.12243 -0.12532 0.055904 0.26435 0.17633 0.167
evidence 0.020149 0.31926 -0.13284 0.18795 0.22811 -0.040087 -0.020442 0.14593 0.26885 0.49784
all -0.087556 0.54785 0.046719 -0.16266 -0.018478 -0.050102 -0.16443 0.022425 0.42831 0.016575
2011 -0.13993 0.23935 -0.051675 0.20591 0.22934 -0.29817 -0.14545 0.16867 -0.051672 -0.10836
 0.089315 0.29837 -0.09496 0.013683 -0.056056 0.030663 0.10601 -0.1018 0.25751 0.081927
been 0.059321 0.2273 -0.23856 0.12857 0.36516 0.213 -0.21427 0.41053 0.32735 -0.18535
they 0.073483 0.34926 -0.0023239 -0.17076 0.18754 -0.31452 -0.15635 0.2556 0.51843 0.046128
people 0.26329 0.17467 -0.26051 0.042714 0.24101 0.023433 -0.16217 0.018693 0.43933 0.15933
This -0.060828 0.45536 0.059099 -0.11573 -0.077926 0.34441 0.05189 0.12307 0.28314 0.10066
In -0.082666 0.46885 -0.017982 -0.078383 0.24084 0.056654 0.01983 0.10442 0.16942 0.15135
e -0.17334 0.48319 -0.13898 0.12661 0.21472 0.096286 -0.052177 -0.053286 0.06328 0.24747
any -0.054122 0.42866 -0.16715 0.0043915 -0.071209 -0.017919 -0.03945 0.063105 0.4288 0.17382
should 0.043061 0.50775 0.09618 -0.15733 0.34813 0.25964 -0.0088732 0.52819 0.25486 -0.15989
N 0.070249 0.15611 -0.16421 0.0080361 0.11412 -0.092812 -0.32105 0.28454 0.24286 0.015385
patients 0.21472 0.18048 -0.13681 -0.24522 0.002604 -0.047216 -0.32313 0.063583 0.18899 0.20458
than 0.035413 0.44124 0.058045 -0.24102 0.2366 -0.10817 -0.13927 -0.014022 0.28588 0.082331
would -0.16723 0.40639 0.12119 -0.25622 0.2187 0.17646 -0.17556 0.10928 0.39786 0.01126
care 0.032102 0.17018 -0.083599 0.11285 0.051472 -0.21436 -0.27744 0.31464 -0.10612 -0.035446
also -0.31803 0.3515 -0.0066629 0.0099114 -0.10694 0.0067822 -0.153 0.047257 0.1357 -0.085859
2010 -0.078774 0.37087 -0.082317 0.14244 0.30185 -0.19385 -0.13587 0.17287 -0.034115 -0.046214
who 0.029633 0.3496 -0.14387 0.037898 0.12934 -0.33228 -0.21314 0.035174 0.56012 -0.19595
risk -0.13938 0.0048313 -0.084727 0.1355 0.23119 0.090817 -0.17631 -0.052961 0.13617 -0.16656
No 0.14444 0.063511 -0.12357 -0.2166 -0.11922 -0.037119 0.069031 0.22074 0.53193 0.07758
may 0.036846 0.30682 0.0537 -0.092496 0.2445 -0.10847 -0.036592 0.2024 0.33156 -0.041657
al 0.24052 0.052896 0.16993 0.092765 0.20674 -0.33341 0.12614 0.45195 -0.44299 0.1491
20 0.13378 0.23859 0.20134 -0.053606 0.068981 -0.29125 -0.021454 0.17433 0.039107 0.015968
per -0.069787 0.30481 -0.066671 -0.27297 0.0059684 -0.14363 0.12351 0.11041 0.55381 -0.21909
treatment 0.2904 0.19613 0.18442 -0.064246 0.10524 0.15409 -0.43301 0.17493 0.069356 0.09802
data -0.0093733 0.58646 0.0058639 0.16407 -0.077801 -0.087446 0.044217 0.059293 -0.12877 0.10008
up 0.17539 0.37425 0.080246 0.078791 0.1579 -0.18011 0.038631 0.031767 0.096764 0.26607
information -0.17852 0.27065 0.044797 0.19124 -0.19131 -0.03673 -0.0026055 0.18124 0.2559 -0.22085
et 0.29422 0.003054 0.13673 0.11364 0.29763 -0.40222 0.084085 0.37724 -0.44213 0.090157
had 0.049713 0.22892 -0.03673 0.11819 0.32954 -3.8038e-06 -0.089789 0.54879 0.49378 -0.0038139
15 0.15306 0.21379 0.082188 0.06181 0.1247 -0.18263 0.049478 0.30553 0.010175 -0.008995
year 0.2595 0.50262 -0.027959 -0.25302 0.026626 0.036452 -0.062829 -0.093273 0.095893 0.16177
use -0.010698 0.10001 -0.049579 0.043466 0.0021416 0.063218 -0.12067 0.36981 -0.096022 0.089634
UK 0.072987 0.19859 -0.14237 0.19031 0.29537 0.050539 -0.026032 0.038858 -0.062764 0.13413
time 0.21083 0.18481 -0.01038 -0.11664 0.17453 -0.0071868 0.063104 0.19203 0.13821 -0.025847
13 0.054572 0.19279 0.045767 0.12289 0.063363 -0.18457 0.073996 0.25957 -0.016765 -0.035404
between 0.16215 0.31176 0.082921 -0.077967 0.16563 -0.38781 -0.1655 0.25387 0.16696 0.19363
there -0.20504 0.15346 -0.018457 -0.022141 0.16715 -0.03963 -0.11463 0.24975 0.0080534 0.099515
14 -0.070344 0.13949 0.050166 0.01936 0.12445 -0.15977 0.033854 0.26095 0.038697 -0.061195
studies -0.089731 0.25244 -0.1022 0.068011 0.2916 0.020121 -0.21807 0.10102 0.045447 0.32129
health 0.13769 0.1532 -0.013125 0.028238 -0.1228 0.030196 -0.29329 -0.0080908 0.074185 -0.18203
16 0.094239 0.098349 0.13613 -0.019441 0.21935 -0.1649 0.046508 0.28695 0.051469 0.027845
these 0.021904 0.38952 -0.035154 0.031986 0.23823 0.026331 -0.090502 0.037075 0.13549 0.079339
s 0.035672 0.3618 -0.10079 0.15238 -0.32236 0.078483 0.040151 -0.036502 0.31078 0.035996
years 0.29448 0.36839 0.029749 -0.47669 0.040474 0.093363 -0.10141 -0.035428 0.12513 0.054173
review -0.084957 0.49113 -0.14132 0.16356 0.096587 0.00021135 -0.12389 0.00090003 0.36466 0.088851
